25 200
a 0.036168113 0.0026208851 -0.044238236 -0.018636819 -0.010902791 -0.01774903 -0.0063051125 -0.015329083 -0.0022425626 -0.004324655 0.0148941 0.011209347 0.039387353 -0.0057371184 0.0047357115 0.006787473 -0.0047086775 -0.01230351 0.0082183555 0.0031532918 -0.008140282 0.025978632 -0.014369007 0.0019524391 -0.008812862 -0.008097453 -0.011667265 -0.012462363 -0.016164219 0.0039679674 -0.0062803924 -0.010471326 -0.0049498477 -0.022883225 0.0018278678 -0.042945478 -0.03282849 -0.007983063 -0.015921816 0.033574585 0.016332205 -0.0032533216 -0.014192782 -0.01518412 -0.02230478 0.0029428143 0.02445356 0.016255816 0.0020744957 0.014322761 -0.02517654 -0.01912528 -0.0070536174 -0.0034226999 0.023515737 0.0023112993 0.0048330254 0.02042951 -0.016052593 -0.0035024753 -0.0075503727 0.022517323 -0.041108772 -0.009629155 0.021419687 -0.028926997 -0.016073376 -0.013143228 0.010524246 0.0017189487 -0.011333785 0.01088412 0.010810793 0.001985388 -0.009203825 0.016619211 -0.013973218 0.024137186 0.023703987 0.0026542773 0.0068460065 0.013899324 -0.0088980505 0.008804153 -0.014925652 -0.0007996712 0.00405445 0.0005044066 0.026255388 0.010406303 -0.0027605097 0.008720196 -0.020112915 0.010041964 0.019879133 0.0151840905 0.0016179603 0.0008569364 -0.021522366 -0.0033543147 0.0051061274 -0.010475711 -0.00010697339 0.018728815 0.0065595587 -0.0014093531 -0.011823069 -0.0077325753 0.0322074 0.0061602267 0.013760639 0.0033540789 0.0049035405 0.019888017 -0.020839619 -0.01893948 -0.000682149 -0.035515714 -0.0064816927 -0.03728453 0.006868018 -0.02020032 0.010115107 -0.025202015 0.01843245 -0.002902092 0.0034819683 -0.008938225 -0.018495416 0.014874756 0.003548306 0.010366993 -0.02402384 -0.0035226578 -0.009254341 -0.011657805 -0.003925117 0.0047610467 0.013811686 0.0077647395 -0.001627387 -0.012305478 -0.019044964 -0.005331731 -0.0144620575 0.0020868306 0.011374554 0.01526182 0.00067376223 -0.014529588 0.0067298347 0.0042291298 -0.012526917 0.0027643545 0.020280734 -0.025434637 -0.01874939 -0.01381177 -0.007135095 0.0066095092 -0.009327995 -0.011138257 0.008420569 -0.004594377 -0.007971066 0.025922887 -0.0125525 -0.019067673 -0.009056549 -0.0009097643 0.0043507298 -0.02098314 -0.0047534197 0.011133423 -0.008111328 0.0055754217 0.0143337585 -0.012574888 0.02423634 0.004598764 -0.02325396 0.0059968936 0.0022166483 0.0048356224 0.009234579 0.044997256 0.010390876 0.0016610085 0.015244223 0.02405338 0.012926456 0.029721322 0.0076032006 0.018793931 0.0014728756 -0.0059082494 -0.02033852 -0.022240264 0.024330085 0.021095686
z 0.037129715 0.00047291393 -0.047506858 -0.020149244 -0.01167587 -0.020006677 -0.012224717 -0.011290671 -0.0058960263 -0.0022362545 0.018375186 0.010225415 0.04229448 -0.00200989 0.005124824 0.006083835 -0.007885131 -0.015758514 0.009866537 0.0025861324 -0.013373836 0.026874693 -0.01538496 0.00070306286 -0.01085465 -0.0067765815 -0.015646748 -0.018451199 -0.013703842 0.002568067 -0.013723915 -0.006995018 -0.012461777 -0.030002225 -0.0010178634 -0.044629425 -0.03267224 -0.00075290346 -0.01036369 0.037845984 0.019273868 -0.00965244 -0.013367862 -0.013824987 -0.024414139 -0.003805702 0.02409229 0.017695323 0.0053266096 0.015979487 -0.023917504 -0.019000597 -0.009330027 -0.010618449 0.026824195 0.002553196 -0.0010018914 0.021550277 -0.016760489 -0.0014039065 -0.0128688635 0.032862253 -0.040651154 -0.0068961754 0.02551401 -0.028499978 -0.018579613 -0.014713275 0.010590578 0.0054984638 -0.009050589 0.008349638 0.01396442 -0.0012157441 -0.00876352 0.015266587 -0.014615745 0.026816072 0.02372321 0.0021650095 0.009072261 0.015392443 -0.0036145796 0.01057402 -0.010823343 -0.004987966 0.0040612775 -0.0019519604 0.028369602 0.012949009 -0.00026950456 0.007140757 -0.020201815 0.009903116 0.023476422 0.015062586 -0.0033780285 -0.0023237905 -0.024193862 -0.0074504022 0.0029826916 -0.009381126 0.00020766472 0.012741817 0.005932201 -0.00090853346 -0.012197097 -0.0085746655 0.038699303 0.0054858327 0.015031687 0.0020996805 -0.0011675116 0.023557125 -0.014730879 -0.02140235 -0.003730144 -0.04454834 -0.011263622 -0.036059413 0.0043236306 -0.0193056 0.011179197 -0.023982648 0.019248607 -0.0029831096 0.0028641706 -0.017992383 -0.02468373 0.021926079 0.0050778696 0.01160447 -0.023921259 -0.00919857 -0.005398009 -0.008891445 -0.002459732 0.013326075 0.014009332 0.006497966 0.004892048 -0.013041005 -0.018998414 -0.0055370703 -0.016461888 0.006892562 0.010080203 0.015073666 0.0006285872 -0.013370834 0.007330891 0.009072578 -0.013970514 -0.0038335728 0.02177394 -0.02175256 -0.021965781 -0.0146929 -0.009775348 0.002080785 -0.016142258 -0.01565689 0.002797656 -0.0031861693 -0.010954729 0.03194363 -0.011577242 -0.0226193 -0.008250448 -0.001163406 0.0069249766 -0.019275399 -0.007999654 0.018045941 -0.011831345 0.008508925 0.0069772173 -0.0168488 0.024411576 0.0066116927 -0.026814505 0.003581857 0.0038944983 0.007466116 0.007753566 0.043776847 0.009633985 0.0018459496 0.015808554 0.027462132 0.012430595 0.032533046 0.012064042 0.02307018 0.0045918557 -0.0038252964 -0.023298273 -0.028970214 0.024053806 0.02238021
r 0.047732923 0.005534854 -0.05336708 -0.013249769 -0.022480754 -0.017658383 -0.007606316 -0.017907519 0.005321671 -0.0063543133 0.020127641 0.009632197 0.04773553 -0.00044266373 0.010118911 0.0068456004 -0.0034320645 -0.0153369345 0.011584514 0.006768123 -0.0036842912 0.025162771 -0.017178802 0.003690977 -0.016635932 -7.8364894e-05 -0.020869933 -0.020707766 -0.017009027 0.009417309 -0.011549933 -0.012584154 -0.011187305 -0.03614437 -3.0998628e-05 -0.049242448 -0.03428471 -0.01784449 -0.010137459 0.037447777 0.027458409 -0.003878267 -0.014663903 -0.015685504 -0.030023033 0.0052032927 0.03373387 0.013242476 0.0093256235 0.016524537 -0.027860578 -0.01814681 -0.014259942 -0.00062669825 0.030975496 0.0011455332 0.0035491555 0.022878721 -0.02339826 -0.0062079453 -0.017458282 0.030049995 -0.0465265 -0.0034118525 0.029459579 -0.03217307 -0.028509736 -0.017062409 0.022295108 0.002348322 -0.009663021 0.013813448 0.010908906 0.015376122 -0.008574267 0.020410446 -0.018007187 0.03404314 0.026723515 0.0014224872 0.004921255 0.021819593 -0.012036854 0.012468463 -0.017946275 -0.014432638 0.00061511557 0.009824361 0.03151673 0.014624325 -0.005371836 0.001503111 -0.021386556 0.011243291 0.030367691 0.01544186 -0.0032469246 0.0049246144 -0.025802325 -0.002534363 0.002259326 -0.021693658 -0.0056888675 0.02530704 0.006942084 0.005412439 -0.00868494 -0.0024058907 0.03512546 0.0038006052 0.0146687785 0.00020009183 -0.0026755715 0.021344567 -0.026303697 -0.022707287 0.010724042 -0.05210816 -0.026349887 -0.04213418 0.003040029 -0.02607077 0.024996636 -0.028270632 0.019125527 -0.004599524 -0.000939259 -0.012065941 -0.02253228 0.022066494 -0.0055004465 0.0010628873 -0.02824442 2.1823591e-05 -0.011938233 -0.018343331 -0.008970945 0.008429953 0.023316769 0.0024490808 -0.0038999727 -0.009114215 -0.023860797 -0.0062691434 -0.025296293 0.0017570517 0.015021872 0.019065727 0.0049190638 -0.014692837 0.011782217 0.005867415 -0.018654685 -0.0029702662 0.015265928 -0.03192128 -0.029188633 -0.01676677 0.0032141118 0.0024524953 -0.01744196 -0.011314296 0.0062261205 -0.006805791 -0.014869012 0.027373882 -0.021638459 -0.033650067 -0.016356416 -0.011272411 0.004849315 -0.019727709 -0.012488399 0.017510671 -0.005697308 0.0058307876 0.012623914 -0.01959019 0.024141597 0.00011928752 -0.030698135 -0.0017185396 -0.00010348484 0.0033237555 0.0051083174 0.055223197 0.010104312 0.00016457109 0.027671823 0.037896585 0.016407868 0.033922896 0.006988971 0.024749476 0.009312151 -0.0020221935 -0.035614565 -0.027439993 0.018877415 0.020145947
l 0.042030137 0.0031418863 -0.04563714 -0.017542394 -0.018433854 -0.010787995 -0.007255663 -0.01618528 -0.0011061996 -0.00677732 0.018619703 0.011317914 0.042446926 0.00031461116 0.012597393 0.005772269 -0.0053747618 -0.011556117 0.008459277 0.0057725194 -0.0036533377 0.026944166 -0.015455341 -0.000833584 -0.007836314 9.146582e-05 -0.016299658 -0.0153972795 -0.017568959 0.00508971 -0.010737922 -0.011731396 -0.012189271 -0.028327625 -0.0008104312 -0.043251697 -0.034167487 -0.010287081 -0.010117663 0.034513265 0.018237395 -0.0068069855 -0.017047329 -0.017782036 -0.021466127 0.0022968864 0.028427927 0.01223788 0.006636571 0.012446741 -0.026549615 -0.016726544 -0.011649566 -0.0042196442 0.02169259 0.0014374364 0.0031499679 0.025866803 -0.01676591 -0.0039453967 -0.009746794 0.026199006 -0.042395502 -0.008284861 0.022194222 -0.029582746 -0.018647468 -0.01177802 0.018047858 0.0020704234 -0.013410528 0.009720181 0.011191918 0.004581316 -0.004635986 0.0135989105 -0.013616535 0.027915306 0.022369597 0.005825839 0.0042543313 0.016980963 -0.0074292454 0.011744103 -0.017165976 -0.0041935523 -0.00038061707 0.005631675 0.027360775 0.012258933 0.0010255983 0.0018578139 -0.014594458 0.010231492 0.025145018 0.017219283 -0.0036385749 0.004804205 -0.017617986 -0.001293417 0.00046439032 -0.018930484 -0.00329998 0.02142935 0.0041566375 0.00047915903 -0.011543153 -0.0056334287 0.03163807 0.006383189 0.01449593 0.0017589299 0.002532886 0.019028533 -0.023982745 -0.01901466 0.0027939484 -0.04480029 -0.017305769 -0.037327353 0.0073375735 -0.02282984 0.018246729 -0.021546701 0.014734814 -0.0009287443 0.0021376282 -0.01546879 -0.017402638 0.01874493 0.0024481162 0.008857889 -0.021270985 -0.0030681058 -0.01163555 -0.013482798 -0.0039628875 0.005661282 0.019291582 0.0010237129 -0.0007384782 -0.009028913 -0.022308206 -0.003357178 -0.021824704 0.0024869125 0.013292952 0.012736621 0.004222797 -0.012494465 0.008958623 0.0073025567 -0.013623531 0.0014544061 0.016340887 -0.031353995 -0.023255512 -0.014881414 -0.003461325 0.0064509027 -0.015066269 -0.007910643 0.007971535 -0.0069218073 -0.012502931 0.028290154 -0.013099117 -0.021499718 -0.012295236 -0.0011379714 0.002083676 -0.021458345 -0.011237715 0.017120382 -0.007841141 0.0021805572 0.01214666 -0.021579647 0.023037933 0.00035822284 -0.025332766 -0.0026438832 0.002885212 0.0045799245 0.0036911916 0.04522313 0.008795185 0.004199919 0.023001947 0.03018815 0.015591654 0.02655234 0.0063124797 0.01904077 0.0033774958 -0.002258344 -0.029405728 -0.023074476 0.018832864 0.02368044
o 0.0324466 -0.0012681556 -0.038923822 -0.016279466 -0.012572451 -0.016909396 -0.003705693 -0.011561206 -0.0027463755 -0.010074454 0.014024363 0.008395443 0.032075636 -0.0021820215 0.0064021302 0.0058776266 -0.0021195284 -0.008860761 0.0085767 0.0027425857 -0.009818283 0.025182385 -0.011014215 -0.0014884465 -0.0094464505 -0.009343205 -0.010503511 -0.009739553 -0.016681714 0.007752311 -0.005327308 -0.010850458 -0.0026088704 -0.022487061 0.0006091606 -0.033888865 -0.027693743 -0.0010007621 -0.015170319 0.028817335 0.014382863 -0.006611696 -0.010495885 -0.00848158 -0.01795226 0.0010238516 0.023039276 0.013388536 0.0014005611 0.006632812 -0.022476435 -0.016841223 -0.008689069 -0.00013395338 0.019085238 0.0034828165 0.0015065101 0.016497876 -0.012804878 0.00054217794 -0.008169152 0.022501277 -0.035819013 -0.007506316 0.017337793 -0.026005242 -0.011807489 -0.006444724 0.00722592 0.0019812956 -0.00866652 0.010183859 0.011103752 -0.0002977312 -0.0026593439 0.014180789 -0.014947443 0.022001144 0.018536657 0.0033167521 0.010252149 0.015691325 -0.007606716 0.010192707 -0.013429098 0.0029656468 0.0038564405 -0.0008926056 0.019934464 0.010753597 -0.0021367287 0.0071199196 -0.016754467 0.007795968 0.021058474 0.011139026 -0.0010319339 -0.0021284772 -0.015042175 -0.0007093761 4.947588e-05 -0.012849618 -0.00045207425 0.015054941 0.009079542 0.0011325744 -0.009173206 -0.008620323 0.024105236 0.0048773275 0.008610593 0.0037747538 0.0052153664 0.020762712 -0.019336808 -0.011953002 -0.00045548033 -0.028206976 -0.0029787393 -0.03296745 0.0036584497 -0.011816757 0.005073218 -0.019517409 0.015751459 -0.0021844595 0.00443776 -0.0077208686 -0.014716635 0.017868398 0.0044628596 0.0057388153 -0.018284157 -0.0030152905 -0.00925404 -0.008829033 -0.0057269908 0.006256413 0.013347128 0.0026309788 0.0020337221 -0.007842588 -0.016671823 -0.00020760924 -0.010511527 0.004961443 0.009528597 0.01126251 -0.0008289414 -0.0143427225 0.004984665 0.006208181 -0.012591413 0.0029429868 0.015071735 -0.020935215 -0.018118974 -0.013311389 -0.0058432827 0.0063623916 -0.0098311575 -0.011365386 0.008265672 -0.0044087484 -0.006637973 0.024984865 -0.010973698 -0.016384585 -0.0043457965 -0.00408906 0.0024664602 -0.01806139 -0.0047807083 0.010248463 -0.007591148 0.008095506 0.012099167 -0.01606422 0.020188676 0.0010427219 -0.022083985 0.007223884 0.00018470721 -0.00039491942 0.005289591 0.040523894 0.005957446 0.0026213392 0.016584082 0.015298682 0.011984897 0.025050504 0.0055153714 0.015501458 -0.0022171915 -0.0066663004 -0.014023601 -0.022407247 0.020992626 0.018851407
q 0.027311595 -0.0031514785 -0.035109438 -0.01719492 -0.009475646 -0.014876609 -0.005794206 -0.007905877 -0.0066184816 -0.008203355 0.016190149 0.0065831775 0.027390275 -0.0024940963 0.0061815926 0.006653254 -0.0017307838 -0.0090811625 0.010576404 0.0019264923 -0.011465933 0.018997356 -0.006140319 0.0029100543 -0.010211737 -0.007693935 -0.01093172 -0.014175154 -0.013175045 0.003303978 -0.007270346 -0.008475303 -0.0067229965 -0.020718358 0.0005771786 -0.033807218 -0.02740052 -0.0019517996 -0.0077460497 0.024692258 0.013365339 -0.005141253 -0.011799637 -0.010280824 -0.01310434 -0.0028387944 0.020816179 0.013068883 0.0018881249 0.010213471 -0.019929597 -0.014499559 -0.009543041 -0.004208103 0.019161882 0.0036984987 -0.0003298656 0.016637046 -0.009788 -0.0009448226 -0.0034438379 0.023500793 -0.03288351 -0.0062522218 0.018137768 -0.02352457 -0.012700456 -0.0058150785 0.0058418997 0.003660666 -0.011055447 0.005250988 0.008319969 -0.0019120628 -0.0066892807 0.012083088 -0.009359235 0.017392706 0.017866518 0.0039155628 0.008836736 0.01411334 -0.0076836566 0.0065123914 -0.00784225 0.0033521506 0.0030826256 -0.0022030023 0.022159504 0.00977356 -0.00051689334 0.004119355 -0.015699616 0.0025949783 0.015321858 0.010417254 -0.0042556506 -0.0012788755 -0.013938042 -0.004142067 0.0027677387 -0.008733518 -0.00054061814 0.009581357 0.006080686 0.00022629023 -0.009759252 -0.0037432006 0.027960926 0.006605905 0.011879952 -0.002037283 0.0024158794 0.02220043 -0.01485964 -0.010149903 -0.0032577747 -0.03134959 -0.0061007948 -0.025980312 0.0004077125 -0.009411187 0.006594154 -0.01725412 0.013789 -0.0010842509 0.0052753165 -0.011376417 -0.01590375 0.018812208 0.0030998087 0.009726652 -0.014810709 -0.00654586 -0.008098997 -0.0034335286 -0.0012113578 0.0077520437 0.010033425 0.0044339714 0.00439617 -0.008866394 -0.015650444 -0.004901976 -0.012427922 0.007331147 0.0086097075 0.00794723 -0.0017236229 -0.010917162 0.0054897806 0.0047572083 -0.011020336 -0.00065632485 0.017731903 -0.016945567 -0.01726836 -0.010491126 -0.0044956054 0.0031046513 -0.008830042 -0.012439387 0.0055200467 -0.0007364586 -0.008829083 0.022561561 -0.008757341 -0.01632579 -0.0027922203 -0.0037799373 0.0026453105 -0.014827157 -0.0058369553 0.012453677 -0.008262212 0.004239907 0.004397998 -0.016488383 0.017139666 0.0035694009 -0.01724276 0.005728967 -0.0014014745 0.0044869776 0.004693163 0.03665137 0.004278544 -0.0018333829 0.0118543925 0.01657227 0.011770997 0.025872573 0.0049946667 0.014320499 -0.000670962 -0.0066269073 -0.013503191 -0.023879237 0.019384766 0.016957583
c 0.028314153 0.0046487395 -0.031077093 -0.009113828 -0.010130734 -0.006807365 -0.0051875208 -0.011806353 0.0006821518 -0.0014978715 0.012541974 0.004938962 0.02697711 -0.0016514618 0.0086906245 0.0027235001 -0.0037233192 -0.0068967906 0.0045499224 0.0057905437 -0.0028102673 0.017895915 -0.009673445 0.003725076 -0.006626829 -0.0032530343 -0.009817446 -0.0075904494 -0.008028164 0.004531608 -0.0057486533 -0.00844881 -0.0070449295 -0.014438221 -0.00012329195 -0.028050017 -0.022869967 -0.008175366 -0.0072078644 0.0192141 0.011056851 -0.0047950624 -0.008960903 -0.011675329 -0.013584411 0.0024098742 0.016207756 0.008282921 0.004800792 0.007535529 -0.015230475 -0.010550985 -0.006232696 0.00048705106 0.016445573 0.003471532 0.002272931 0.015749168 -0.014161288 -0.0032281273 -0.0046012793 0.012991302 -0.027852587 -0.004688643 0.016682576 -0.016831825 -0.01174441 -0.0077383462 0.011923691 0.0022469154 -0.0068852147 0.008080279 0.0083712265 0.004219623 -0.005657204 0.012391243 -0.008456038 0.016693933 0.014026588 0.00033224505 0.0016583763 0.012272008 -0.00628938 0.005369136 -0.011613257 -0.0054604155 0.00064200046 0.0032312614 0.016898151 0.007259632 0.0017571134 0.0024013096 -0.013597442 0.0072610327 0.016295502 0.010135061 0.000968277 0.003175567 -0.0154461665 -0.0020478321 0.0020901184 -0.008806846 -0.00061117037 0.015016829 0.004404634 0.00070704677 -0.007569734 -0.0028620795 0.020838613 0.0005876225 0.009611708 0.0022113912 -0.000854249 0.013778194 -0.014958895 -0.0121976165 0.0015136115 -0.026294854 -0.008555161 -0.023916634 0.0037641078 -0.0114791505 0.010491396 -0.017680306 0.010220628 0.0006725229 0.00301463 -0.0061717783 -0.014784189 0.013102679 -0.0033371497 0.0037991267 -0.013363398 -3.0871593e-05 -0.006209798 -0.004983262 -0.001193333 0.0038920846 0.011344542 0.0033977241 -0.0026993335 -0.0055158385 -0.015486378 -0.003830019 -0.0102061285 0.0028260753 0.008215373 0.011337219 0.0015839209 -0.007847169 0.0069409087 0.00637584 -0.007501824 0.0023688965 0.010092047 -0.020036256 -0.017508341 -0.0072937133 -0.0016867699 0.0057411524 -0.011307025 -0.00846234 0.002161702 -0.0027589023 -0.0067531457 0.016443713 -0.006425152 -0.017804425 -0.0073796785 -0.0041663023 0.005283407 -0.014164794 -0.0046656975 0.008971171 -0.003108649 0.002479775 0.0074809603 -0.011660061 0.01273653 -0.0008310642 -0.016243134 0.0016712096 0.0012543211 0.00065764494 0.0056812237 0.028729066 0.0056466134 0.0029483438 0.014822815 0.01762972 0.005750686 0.016151797 0.0064581246 0.014617942 0.0042317794 -0.0030904913 -0.015408676 -0.015764136 0.012710961 0.010986858
p 0.043948792 0.002820476 -0.048532635 -0.014806292 -0.02358811 -0.011693037 -0.00914216 -0.01250243 0.0062785256 -0.010373015 0.019430531 0.009454893 0.03632805 0.0060181613 0.0104421 0.0054884446 -0.0040158457 -0.011579155 0.0071554943 -4.2847623e-05 -0.006780889 0.02117236 -0.012337714 0.008296885 -0.016346764 0.005549879 -0.01915589 -0.016471544 -0.017438754 0.006199411 -0.012406265 -0.008537776 -0.008445935 -0.033199646 -0.004932159 -0.041669253 -0.031291123 -0.015563496 -0.011760365 0.029292734 0.024676867 -0.0067493543 -0.015373477 -0.01807834 -0.029750219 0.0016579803 0.029900953 0.012036456 0.011322698 0.016765455 -0.019115863 -0.013474303 -0.008897968 -0.005564413 0.029196369 0.0032583505 0.0061951946 0.020963185 -0.017953213 -0.0038692998 -0.015972348 0.027736863 -0.037063986 0.0019856417 0.023951607 -0.027522486 -0.023996549 -0.013727527 0.016720597 5.579945e-05 -0.007876161 0.014027385 0.011900928 0.013023826 -0.0018710647 0.019019645 -0.0172987 0.029707208 0.021229696 -0.0010223414 0.0073443055 0.020969963 -0.009825883 0.014389594 -0.013193123 -0.016439252 0.0044791275 0.0058289384 0.023171475 0.007194012 -0.003618361 0.002811129 -0.013809999 0.012254507 0.021498071 0.016668282 -0.003912763 -0.0022719656 -0.02199516 0.0007247209 0.0035299703 -0.018686106 -0.0032039192 0.018061781 0.0026469808 0.0006424977 -0.009782277 0.0033554893 0.03485444 0.0033442809 0.010513336 -0.004435614 -0.0049957223 0.021291463 -0.019670218 -0.020862807 0.009850658 -0.045377593 -0.02585833 -0.033899147 0.0020541775 -0.017272215 0.023664106 -0.021323591 0.014612773 -0.005812681 -0.0038925696 -0.009395228 -0.01657789 0.0194212 0.0007002295 -0.000513714 -0.025073007 0.00036214036 -0.011309238 -0.01214023 -0.0036203065 0.006442624 0.01864433 -0.0035694295 -0.0061206752 -0.012733461 -0.021688132 -0.0053347535 -0.019236244 0.008451307 0.008269132 0.011054888 0.004670068 -0.017469708 0.00994507 0.0064712595 -0.020143736 -0.005065115 0.0056232223 -0.029674195 -0.0257841 -0.011175203 0.004343582 0.0057727527 -0.018991126 -0.009688764 0.009969714 -0.004816871 -0.016990319 0.023056053 -0.019430986 -0.029034894 -0.017217569 -0.012662062 0.005522972 -0.016517831 -0.014551248 0.019825686 0.0011023182 -0.0002278449 0.0047925455 -0.013751421 0.023364665 0.00096855895 -0.027463127 -0.0073861703 -0.00091679534 0.0040961276 0.0023515052 0.047005378 0.004525945 -0.0014331699 0.024672732 0.032951325 0.009432797 0.028578458 0.0024352337 0.018000616 0.008369424 -0.0004886437 -0.03091652 -0.022351975 0.0138046015 0.012275705
w 0.029333906 0.0008259706 -0.031134661 -0.013237789 -0.011606338 -0.014172459 -0.006619932 -0.0072731166 -0.0037175086 -0.002291212 0.010630378 0.0053339447 0.026478173 -0.0024355482 0.0014073747 0.0009162015 -0.0043983613 -0.0071131266 0.0056774872 0.0022773494 -0.0073366878 0.016744314 -0.014613953 -0.0027265984 -0.007859179 1.5044174e-05 -0.012157585 -0.008617146 -0.0074751675 0.00085134344 -0.007848261 -0.0048342934 -0.00548967 -0.018689018 -0.0016299943 -0.03228562 -0.022995444 -0.0077289706 -0.010414554 0.024681179 0.0133724185 -0.007448963 -0.012128832 -0.012389035 -0.018528383 -0.0011624192 0.013910078 0.010633619 0.002008315 0.010159537 -0.018470531 -0.011409031 -0.006494958 -0.0038485243 0.020187413 0.0035556837 0.0008625058 0.014053858 -0.015643127 -0.0012542764 -0.010502507 0.016367242 -0.02562555 -0.0019343732 0.018403871 -0.021240538 -0.01339987 -0.009811741 0.011120959 0.00053462083 -0.0051866043 0.0069791246 0.011007694 -0.0011690669 -0.006723805 0.013312227 -0.009819908 0.014964301 0.015237423 0.0028119031 0.0015803683 0.008288847 -0.0033029914 0.01037777 -0.010778583 -0.0046667713 0.00076186995 -0.0018297493 0.019596027 0.010170595 -0.002759513 0.0062871277 -0.015346029 0.0061083063 0.017076429 0.006476574 0.0007031262 -0.0017516807 -0.013457083 -0.0019630343 0.0016295298 -0.010903652 0.0019414576 0.013207552 0.0069878045 0.0021908043 -0.008463558 -0.002174926 0.023067482 0.0053407676 0.009282609 -0.0017115278 -0.00058481825 0.01335699 -0.015171138 -0.015979216 -0.0003902855 -0.03060278 -0.01031762 -0.025538702 0.00085493963 -0.015372875 0.006954516 -0.01705809 0.010070718 -0.0022360177 -0.00039007247 -0.008927932 -0.013313753 0.013074603 0.00074874825 0.003269572 -0.020184835 -0.0040268353 -0.00197549 -0.011806841 -0.007783652 0.0030922627 0.009812473 0.0044665528 -0.0018688319 -0.009333631 -0.011963273 -0.005294792 -0.008752367 0.005082679 0.0068391035 0.007600655 0.0011531665 -0.0062500834 0.006242397 0.0030039607 -0.008622883 -0.0009803945 0.010605007 -0.01400786 -0.013251465 -0.011271305 -0.0032166452 0.0036341792 -0.013204045 -0.010681123 0.0032443695 -0.004339429 -0.010037114 0.019565342 -0.007650887 -0.01360683 -0.0054184664 -0.0028441155 0.0022165035 -0.014526777 -0.008166802 0.012821599 -0.0013096996 0.005513325 0.0094379755 -0.009312434 0.0181385 -0.0008063786 -0.014570544 -0.00025839545 0.0039273216 0.003626252 0.0056051463 0.031939093 0.005112379 0.003933243 0.008877261 0.022290045 0.008069663 0.023182351 0.006863297 0.015691474 3.365337e-05 0.0005971017 -0.018994259 -0.016047351 0.016867043 0.015130379
k 0.020815054 -0.000957451 -0.030131446 -0.014185541 -0.008777767 -0.010518542 -0.0025586209 -0.011589783 -0.0057588145 -0.008366809 0.009520655 0.008094224 0.024573699 -0.002406837 0.0066825994 0.005401241 -0.004575882 -0.0065310523 0.009985904 0.001793314 -0.009719416 0.01610835 -0.0052258233 0.00116341 -0.006992902 -0.007834201 -0.008124462 -0.012909555 -0.013795482 0.0033825862 -0.0021343944 -0.003697505 -0.0061275605 -0.016301185 0.0022550842 -0.024497615 -0.021919671 0.0009802803 -0.010407697 0.023054997 0.010889635 -0.0033039777 -0.0048632645 -0.0041090744 -0.010088525 -0.0020198617 0.018568372 0.013295653 0.0023416658 0.006301413 -0.017550614 -0.00903423 -0.00603049 -0.0033778567 0.014023062 0.0035818052 0.0027436893 0.01181662 -0.0069871363 0.0006323662 -0.0033153046 0.019927107 -0.028310113 -0.008738539 0.013103162 -0.016423674 -0.008057136 -0.0030058152 0.008651759 0.002496818 -0.0051275254 0.004011969 0.007544751 0.0013897304 -0.00042199498 0.009693133 -0.01201861 0.0140801845 0.0132861575 0.0002266955 0.008768865 0.012574436 -0.007570584 0.0074428115 -0.008727891 0.0009858647 0.0056086276 -0.0012808797 0.01437642 0.008067472 -0.0015468615 0.0010088625 -0.014315938 0.004366727 0.014809745 0.011106566 -0.0047900714 -0.0010989101 -0.013312467 -0.0046006567 -0.000549783 -0.007971481 0.0005963427 0.007819512 0.008838422 0.0038687724 -0.0050362474 -0.0047285026 0.020211924 0.00352079 0.008142494 -0.00060965883 0.00020553658 0.016321389 -0.014283249 -0.010867433 0.000104281775 -0.024564816 -0.0038003027 -0.023215294 0.004357307 -0.011102099 0.0046189353 -0.015188542 0.010457117 -0.004852924 0.005728708 -0.010233014 -0.010420413 0.014988931 0.0020382144 0.004058139 -0.009253054 -0.0046491134 -0.007436915 -0.003430771 -0.00011429271 0.007821155 0.0056735296 0.0033651942 0.0011475979 -0.006805094 -0.009899001 0.0007188665 -0.00732242 0.00045639023 0.009805773 0.0060525145 0.001762821 -0.012497892 0.005532036 0.006359465 -0.010308178 -0.0011140475 0.014579633 -0.01413406 -0.0148811275 -0.010125065 -0.006298323 0.00031917775 -0.008796242 -0.009447948 0.006180242 -0.0019562244 -0.0059473193 0.019651465 -0.00966618 -0.01190414 -0.004698149 -0.0037700322 0.0026350948 -0.012840075 -0.0019480723 0.00834043 -0.007969344 0.002880437 0.0071872077 -0.0116048725 0.013344951 0.0033982678 -0.015820542 0.002887896 0.0033913336 0.0013818983 0.0036894903 0.030958565 0.007107875 0.001486958 0.008537455 0.010436964 0.008039446 0.01646533 0.0026101933 0.011427414 -0.00088273804 -0.0057262084 -0.007818023 -0.015905278 0.016503284 0.013501147
h 0.022244403 -0.0026549294 -0.025617786 -0.010914296 -0.005723045 -0.010743751 -0.0074320794 -0.008648417 -0.0059381914 -0.0017735083 0.0099391285 0.0052774576 0.02099991 -0.0025079628 0.0036307792 0.00033492938 -0.004421774 -0.008404352 0.0049440023 0.0017610966 -0.008277686 0.017609367 -0.004586347 0.001103107 -0.006174648 -0.0027586205 -0.0044121887 -0.013424883 -0.011783182 0.0037862395 -0.008437494 -0.005484198 -0.007101951 -0.017274236 -0.00010135056 -0.026277049 -0.023610014 0.0034255837 -0.0046625948 0.01820271 0.009925565 -0.0072999257 -0.008006499 -0.009053864 -0.012703843 0.0018508789 0.01656334 0.010210507 0.00081831374 0.0051316605 -0.016210042 -0.009770097 -0.0073209708 -0.0070303334 0.011821948 -0.00013002388 -0.00057515065 0.016338035 -0.005607713 0.002577397 -0.00041665684 0.020799007 -0.026339408 -0.0080833 0.008723744 -0.012948818 -0.006935035 -0.007862894 0.0027969857 0.0023405063 -0.010876289 0.007490485 0.0028792946 -0.0013071364 -0.004589179 0.01000878 -0.00690294 0.014854736 0.011816597 0.0011454938 0.007255711 0.010669554 -0.0008310706 0.0049635824 -0.0044196914 -0.00012380982 0.00014500618 0.00096179877 0.014366484 0.006274876 -0.0010929417 0.005881739 -0.009468003 0.0015358075 0.008281853 0.012290406 -0.0015936057 -0.002920575 -0.009676466 -0.0047733556 0.003891386 -0.0042920336 0.0020505653 0.0030598717 0.00598651 -0.0021897028 -0.010588364 -0.003083374 0.025194688 0.004877866 0.004710419 0.0016841805 0.0019298973 0.015951347 -0.0073369592 -0.011932646 -0.005150913 -0.022939892 -0.0022631492 -0.01697728 0.0038253244 -0.008143261 0.0053564114 -0.012360969 0.006824926 -0.00071278395 -0.0015827961 -0.011183935 -0.014504551 0.015334383 0.0080403695 0.005788934 -0.012498841 -0.003754147 -0.0013027886 -0.0033871732 -0.0009969234 0.009402028 0.0069139944 0.0011728138 0.0031823153 -0.004714156 -0.010205319 -0.0023035568 -0.011393055 0.0071526538 0.0060642995 0.00820607 0.001015759 -0.008061226 0.0024679769 0.006998832 -0.008732218 0.0044547278 0.014505084 -0.015968427 -0.011447676 -0.0065289396 -0.0081405565 0.0014183033 -0.009486823 -0.007353061 -0.00070526334 -0.00028656027 -0.003657 0.015896184 -0.0050768484 -0.010503385 0.00039648864 0.0025587757 0.0027618592 -0.010785429 -0.002027508 0.011524173 -0.009194892 0.0054679085 0.0031084442 -0.014509472 0.014233989 0.0023019526 -0.015870843 0.00040884758 -0.0013074625 0.0013493744 0.00505999 0.028155914 0.0057741464 -0.0027159078 0.005803127 0.012554468 0.006678678 0.019749304 0.005794284 0.012365775 0.002615687 -0.0006752277 -0.014752925 -0.019351497 0.016046464 0.0124712335
g 0.02342963 0.002642465 -0.026083054 -0.013456376 -0.0067471736 -0.008700673 -0.007350044 -0.006046424 -0.0042494857 -0.00085365586 0.01111787 0.0034007651 0.025962174 -0.0017494033 0.004817455 0.0018255553 -0.0022948964 -0.009600301 0.0028785602 0.004153662 -0.0067299376 0.0133898575 -0.00638271 0.0008489095 -0.007211416 -0.0021172308 -0.009075443 -0.0071423682 -0.008809961 0.00029438562 -0.0057661626 -0.006968643 -0.003610397 -0.012746096 0.000111807 -0.026361702 -0.021952396 -0.00223652 -0.009952816 0.020171594 0.009001221 -0.0030344655 -0.009186215 -0.006159303 -0.010140278 0.00048278723 0.01773214 0.0080537535 -0.00040709952 0.008691445 -0.013133779 -0.007935822 -0.004985128 -0.004839999 0.01207829 0.0005726479 -0.00040209133 0.01402218 -0.011319645 -0.0011475777 -0.0044410774 0.014131137 -0.024748446 -0.0047604055 0.01578242 -0.01432469 -0.01018867 -0.009790101 0.0056616957 0.0013394301 -0.007772696 0.0059581627 0.008815549 -0.0020278255 -0.004229692 0.01013038 -0.009706464 0.013926218 0.012607585 0.0017382781 0.0017998356 0.011654439 -0.0005127815 0.007261591 -0.00737518 -0.0013754581 0.00032621544 -0.0034164067 0.013604533 0.010072302 0.001361364 0.006879757 -0.014330662 0.0039369673 0.01156698 0.008263524 -0.0025914495 0.0016645584 -0.013314948 -0.0021606109 0.00022194182 -0.0048203003 -0.0008730805 0.007000126 0.0064787185 -0.0015612128 -0.005664406 -0.004789707 0.023336466 0.0032634842 0.010213026 -0.0012142903 0.0032657334 0.01635912 -0.008541498 -0.010202978 -0.0034338292 -0.025852699 -0.0023008736 -0.02169969 0.0053687845 -0.008199173 0.00849314 -0.014524227 0.009006845 -0.0030355165 0.0012935493 -0.009151262 -0.010173882 0.010232188 0.003328912 0.0068013347 -0.01132023 -0.005147881 -0.003332606 -0.008821544 -0.0047469805 0.006993049 0.010122413 0.0032971264 0.0017577088 -0.008727943 -0.01087707 -0.0032926188 -0.011013193 0.004660145 0.009012197 0.006555247 -0.00047008044 -0.0071288156 0.0045303586 0.006128552 -0.010263159 -0.0002351131 0.012022853 -0.01543572 -0.014526302 -0.0062805032 -0.0044899345 0.0046233214 -0.01025616 -0.008787542 0.00069513643 -0.00043107916 -0.0041867457 0.015913682 -0.00423276 -0.013506614 -0.004471152 -0.0006123681 0.0051799184 -0.012019929 -0.0026676839 0.008153348 -0.0050376547 0.0067466353 0.009037741 -0.007796329 0.016204862 0.001285974 -0.014636932 0.0017398212 0.001464759 0.0002647974 0.0048453505 0.028071448 0.0028891964 0.0012343363 0.00839595 0.016881255 0.008974746 0.017555619 0.006013694 0.011807618 0.0002678383 -0.0057646697 -0.0139947655 -0.017970594 0.016467884 0.012281853
m 0.014880082 -0.0023803574 -0.023427878 -0.014363771 -0.0071582883 -0.009967145 -0.002617859 -0.009192196 -0.006084716 -0.009023217 0.0125596365 0.002484035 0.020369943 -0.0016582703 0.0063989856 0.0057290257 -0.004264907 -0.004407512 0.008792598 0.004934497 -0.0094160205 0.017016515 -0.0034012045 0.0025761041 -0.0056245485 -0.0060440665 -0.0037524719 -0.01150152 -0.011475096 0.0065448973 -0.0005542886 -0.007548201 -0.0004172483 -0.016291184 -0.0025135826 -0.019064065 -0.015555933 0.0030302603 -0.009930808 0.01650345 0.0073432154 -0.0045408676 -0.008080015 -0.0057863505 -0.0072164247 -0.0037145119 0.015433351 0.011538492 0.0016641739 0.003649467 -0.014156071 -0.011042113 -0.003967794 0.00081538694 0.0093597025 0.0036624137 0.0013580151 0.012010009 -0.0048693577 -0.00015747502 -0.0052940096 0.012916667 -0.024854608 -0.007112663 0.006553957 -0.016461158 -0.009562067 -0.00092360575 0.0053675 0.0039366926 -0.009619084 0.004929116 0.002320952 0.00019186348 -0.0002080117 0.007843948 -0.009371568 0.012169726 0.00972185 -0.0012561786 0.009125526 0.008753177 -0.008052668 0.005991791 -0.0056756223 0.0061970283 0.0026792006 -0.0022470767 0.014251153 0.0061204094 0.0010395584 0.006248653 -0.012101136 0.0013445683 0.009821016 0.009837476 -0.003438865 -0.00076643896 -0.009619523 -0.0043981415 -0.0015963678 -0.0047157523 0.00017087355 0.00570129 0.008272351 0.0034190963 -0.0041448465 -0.006355371 0.018912764 0.0037125535 0.009009009 0.00087158947 0.00607623 0.017173294 -0.009448528 -0.006155369 -0.00093347253 -0.01621219 -0.0025320782 -0.019528748 -0.00017225266 -0.006161413 0.0019727836 -0.014112217 0.0054237177 -0.0029953152 0.003966882 -0.008864565 -0.0063341623 0.014054854 0.001487372 0.008581687 -0.0063422797 -0.0030290894 -0.0035003664 -0.0013696741 0.002243235 0.008778923 0.0056093833 0.0035730381 0.002335742 -0.004692607 -0.0059413263 -0.0026892666 -0.009631946 0.001607584 0.008286076 0.0074102143 -0.0020532212 -0.01162663 0.006441064 0.0045922683 -0.010091609 0.0010515025 0.012244874 -0.012991857 -0.009191822 -0.006347294 -0.0056761084 0.00032053574 -0.0031201795 -0.008816863 0.0020488664 0.0012028147 -0.003247111 0.0141227115 -0.0031305824 -0.011527077 -0.002006338 -0.0010751064 -0.0007804673 -0.009710086 0.0005674702 0.008206194 -0.00848995 0.007094808 0.0022470222 -0.011775391 0.0143105015 0.0040421286 -0.014584187 0.006125828 0.0015129402 0.00036695894 0.0006755221 0.025327088 0.004281543 0.0014516868 0.010990991 0.008603979 0.0061225365 0.016505273 0.003856491 0.009940783 0.00015757217 -0.0070847496 -0.006902183 -0.015713084 0.015277341 0.01282044
i 0.018941205 -0.0032492378 -0.022176305 -0.01537562 -0.0075614164 -0.008750389 -0.01013736 -0.011031762 -0.0065244334 -0.002901018 0.013960978 0.0064677447 0.023981724 -0.0039212056 0.009511219 0.0027094816 -0.0048309513 -0.009459233 0.006794193 0.007092359 -0.00493308 0.013889271 -0.009644029 -0.0020034749 -0.0038287134 -0.0027210366 -0.0028962402 -0.013008795 -0.014081286 0.003269772 -0.009800069 -0.0017763925 -0.0074599413 -0.01709905 -0.001891937 -0.028331764 -0.023498394 0.004150972 -0.0057033286 0.022263298 0.004764698 -0.0049855355 -0.011088088 -0.011570645 -0.01401731 -0.0004043719 0.015803825 0.014532981 0.0012137903 0.0053882073 -0.016118137 -0.0064761853 -0.0039893235 -0.004248674 0.012804927 -0.0024736684 -0.004004535 0.017114641 -0.009767283 8.151366e-05 -0.0013363152 0.02212053 -0.029004576 -0.007196439 0.012221964 -0.014942822 -0.008846529 -0.005819078 0.00787606 0.0066937506 -0.01204867 0.006679601 0.0045164065 -0.0041309264 -0.0039943196 0.01148758 -0.0052112034 0.01639647 0.011029263 0.0036691923 0.00236882 0.011280559 -0.0040829233 0.007634821 -0.0059314156 0.005556308 0.0039830185 -0.0030022317 0.014782975 0.011891602 0.003723419 0.0041142544 -0.011323438 0.002049592 0.007827677 0.011688046 -0.004854327 0.00094706577 -0.015202552 -0.005467401 0.0049936958 -0.006311571 0.00042214783 0.006186569 0.0040650144 -0.0021396228 -0.010029347 -0.0031926096 0.025913069 0.005261653 0.01107074 0.00048514828 0.003871054 0.018851677 -0.009457471 -0.007676221 -0.0061476124 -0.02403292 -0.002328692 -0.018193398 0.0030470637 -0.008820656 0.0036658489 -0.012187467 0.0057013417 -0.0028460461 -6.589362e-05 -0.013158139 -0.013253947 0.016261693 0.007686801 0.01060152 -0.010672468 -0.007193024 -0.0038846217 -0.0024893568 0.002192169 0.010696397 0.005719293 0.00546872 0.0068286383 -0.0080706645 -0.009999056 0.0003836433 -0.009822736 0.005373063 0.010980636 0.009459189 -0.0034257385 -0.010322805 0.0068700225 0.008912022 -0.006758428 0.004684949 0.017594812 -0.012133818 -0.008770227 -0.004760216 -0.009275153 0.0005858343 -0.006514902 -0.0044491068 -0.0016456126 -0.0046262606 -0.0042500296 0.01790264 -0.0069080894 -0.00712099 0.0008393793 0.00303601 0.0041956897 -0.011994006 -0.002794703 0.009629686 -0.011523155 0.007000615 0.007937593 -0.015492663 0.009692046 0.006084988 -0.015765186 0.0050780736 -0.00077581714 0.00474688 0.0010564409 0.0296918 0.002143432 -0.00094865356 0.0046944544 0.012940933 0.008344526 0.019921023 0.006978948 0.009514503 0.0041189063 -0.001318805 -0.01301762 -0.020795386 0.017689347 0.015570914
f 0.027794639 0.0035977943 -0.03132134 -0.008029836 -0.008643997 -0.0076453984 -0.00514584 -0.010763336 0.0014902496 -0.0043885033 0.012981228 0.0039949985 0.024668623 -0.002649268 0.004471713 0.0009786565 -0.0030788388 -0.0073945546 0.0031173371 0.004065049 -0.0018602248 0.014876354 -0.0076096472 0.00181552 -0.0038671566 -0.004728003 -0.012207537 -0.0071802945 -0.01107864 0.0015449732 -0.0060563465 -0.0043134918 -0.008927727 -0.014718239 -0.0017505711 -0.024040781 -0.020426327 -0.005855531 -0.0071300073 0.019588653 0.014372639 0.00013468231 -0.009968019 -0.0074922726 -0.016369438 -0.0007030352 0.019192813 0.010107908 0.003181254 0.006514197 -0.017081685 -0.010760277 -0.007834678 -0.002488991 0.015447185 0.002696324 0.002370513 0.014459326 -0.011015092 -0.004897708 -0.008457008 0.013195576 -0.026958102 -0.0012079765 0.01831123 -0.015760932 -0.014576301 -0.007914815 0.011569236 0.004971284 -0.008263761 0.006350855 0.009169924 0.0024056062 -0.0023018478 0.012264731 -0.01118839 0.015229568 0.0154356 0.0015931441 0.0049914764 0.012047406 -0.005131645 0.007325222 -0.008643581 -0.0019615202 0.0026820523 -0.00085134123 0.014449624 0.010369963 -0.002427366 0.0019421167 -0.014517764 0.0040226458 0.017986365 0.0072436403 0.0004961583 0.00022957976 -0.011670927 -0.00096289744 0.0027808247 -0.011895169 -0.0024900564 0.013013907 0.0023776228 0.0008063008 -0.0028428363 -0.0010572927 0.02280924 0.002282358 0.011890707 0.0005596924 -0.0008543865 0.015273482 -0.010319103 -0.010533273 9.717694e-05 -0.026956113 -0.010641414 -0.025258597 0.0029693814 -0.014307095 0.008564964 -0.0175651 0.011858132 -0.0014878667 0.00026173142 -0.005426172 -0.015292196 0.011030853 -0.0019341735 0.0058916695 -0.015746854 -0.0037093887 -0.0033955167 -0.008226368 -0.0009462127 0.0011711416 0.009869405 0.00080347876 0.0018246188 -0.0068067457 -0.015765844 -0.0042544496 -0.014391063 0.0050005107 0.0050324225 0.006461953 4.6111614e-05 -0.009825567 0.0023593751 0.0049866005 -0.011388826 0.00053656765 0.0073546376 -0.01939114 -0.01298709 -0.007493227 -0.00058137026 0.0015657454 -0.008585194 -0.009573431 0.004145043 -0.0012678711 -0.009421925 0.018003149 -0.0057251137 -0.01666636 -0.004784777 -0.002905781 0.004063592 -0.01330484 -0.0035562303 0.01045167 -0.005077921 0.0021919683 0.0052557793 -0.010294501 0.015812011 0.0039766673 -0.01780598 0.00020786792 0.0024470864 -8.432189e-05 0.0068678698 0.027856005 0.0048405034 0.003610293 0.011232924 0.014656246 0.010060791 0.02076187 0.004186723 0.0145667475 8.531543e-05 -0.0036203698 -0.015790364 -0.017726654 0.013812984 0.011750103
d 0.023091437 0.002181193 -0.025532672 -0.010668188 -0.0061891177 -0.008134209 -0.006512907 -0.011957158 -0.0029946703 -0.0015850398 0.010613209 0.008522279 0.022187335 -0.0023438663 0.0065350174 0.0027804316 -0.0026738972 -0.009653632 0.0050227526 0.0051821717 -0.0036349413 0.011766574 -0.009713848 -0.0020048842 -0.0023367968 -0.0052595297 -0.006063623 -0.007929797 -0.006138261 0.0042999806 -0.004437323 -0.006055941 -0.0070301164 -0.016144115 -0.0012730109 -0.026317798 -0.01861118 -0.0065145935 -0.010291984 0.022217806 0.009000186 -0.0005742531 -0.006395214 -0.009190805 -0.010688556 -0.0012281837 0.015428003 0.011835258 0.00047418653 0.0076974095 -0.01567989 -0.012899944 -0.0067088245 -0.002748389 0.01597563 -0.0016018604 0.004201967 0.012211328 -0.01320334 -0.004275085 -0.007753497 0.013732515 -0.027342096 -0.0016905592 0.015077523 -0.018982412 -0.010488875 -0.007823212 0.010330032 0.0043152524 -0.0059075784 0.0059512174 0.0041642888 -4.2488602e-05 -0.0018491817 0.008341362 -0.010927718 0.015356297 0.014883621 0.0020788133 0.0013596278 0.008833348 -0.0022219473 0.0053934073 -0.007319463 -0.0010625172 0.0029797768 0.0021698226 0.013526103 0.009855471 0.0017405516 0.00082528044 -0.012237245 0.0020486743 0.015993593 0.008726858 -0.0006204214 0.00064794126 -0.015627354 -0.0017069167 0.004348844 -0.0100584375 5.5017983e-05 0.014448771 0.0072005047 0.0012815394 -0.004308998 -0.0025316654 0.016442835 0.002493059 0.011361517 -0.001930655 0.0031515835 0.0106004225 -0.0142991375 -0.011029715 0.0014404657 -0.025853328 -0.00509293 -0.022598363 0.004119308 -0.011813809 0.009318225 -0.015750997 0.010825683 0.0012959095 0.00044412815 -0.0072716833 -0.010538055 0.010108531 0.00013234207 0.0058884625 -0.012509588 -0.0031580392 -0.0020466542 -0.0067365346 -0.0016167997 0.0039774254 0.010277993 0.00036318233 0.0025050184 -0.005084704 -0.011336703 -0.003101238 -0.0131313335 0.0020541102 0.009456417 0.011363614 0.00078345847 -0.0069518485 0.0035631182 0.003866131 -0.009695908 0.0021123667 0.010853117 -0.015430884 -0.014619675 -0.010848095 -0.0016867066 0.0035382265 -0.00623725 -0.007945851 0.0036876579 -0.00025671456 -0.0060637644 0.017229259 -0.008453748 -0.015829207 -0.0068959375 -0.00082104444 0.0020760878 -0.012331164 -0.0023823087 0.006360537 -0.003048959 0.0052163773 0.007269994 -0.009272377 0.01616098 0.0035817137 -0.013310425 0.0013387284 -0.0012251007 -0.0003061102 0.0039324868 0.024642989 0.004419149 0.0030643996 0.00927452 0.013336761 0.0075300126 0.016768144 0.0040907436 0.013301625 -0.0005818409 -0.0050905924 -0.011359637 -0.01300967 0.013260907 0.014280784
y 0.027745366 -0.00066235726 -0.028296158 -0.013226075 -0.0121307755 -0.011444036 -0.009136717 -0.007393914 -0.0054510497 0.00020518005 0.014448141 0.0045598955 0.028576026 -0.0044780793 0.0053749774 0.002900822 -0.005040922 -0.008972394 0.006818462 0.0049247406 -0.010185909 0.014419896 -0.0136021525 -0.0023159136 -0.0044707237 -0.0021381953 -0.010581197 -0.011251614 -0.010380829 0.0010221553 -0.008498004 -0.0071929456 -0.0038257467 -0.019375607 -0.0047342842 -0.03175733 -0.022021366 -0.00010244151 -0.0055926447 0.025062006 0.013804217 -0.006601042 -0.0121957855 -0.011032093 -0.013653266 -0.0026518682 0.016109074 0.00999641 0.0005745975 0.010362066 -0.019006219 -0.008052277 -0.005547878 -0.009181944 0.01638527 0.0036476671 -0.00032304958 0.011610158 -0.013517855 -0.00292223 -0.007763024 0.01982882 -0.02452589 -0.002939689 0.019169973 -0.01953065 -0.011249945 -0.010500335 0.009232353 0.0045015085 -0.006067366 0.0038317288 0.008858268 -0.0017481918 -0.007669619 0.01358983 -0.009929554 0.016753983 0.01728217 -0.0008047353 0.00052825053 0.008735168 -0.001395868 0.010555017 -0.009176257 -0.005974617 -0.0016255198 -0.0025569894 0.020037746 0.009329186 -0.0020755522 0.0049710553 -0.013165327 0.0064598643 0.012565317 0.010930378 -0.0043180324 0.0027627738 -0.018276105 -0.0037243962 0.0040374203 -0.008410526 -0.0018355426 0.007730859 0.0038632895 0.0028694838 -0.005449615 -0.0026599315 0.024807062 0.0054559303 0.0070584663 0.00024903775 -0.0007009718 0.016331147 -0.012041982 -0.011481902 -0.0036670293 -0.029573824 -0.006326985 -0.025025787 0.0043486007 -0.014071231 0.0047597857 -0.01506253 0.013609998 -0.004131041 0.0010381868 -0.011960791 -0.014958316 0.016869811 0.00084000675 0.008572188 -0.016902048 -0.004336684 -0.001221776 -0.008141755 -0.0064418507 0.004817785 0.009616685 0.0058269924 0.0029392026 -0.0050890543 -0.013858152 -0.0059150257 -0.007242252 0.0045450386 0.007060218 0.009008045 -0.0005932364 -0.01076785 0.0053789127 0.0071928077 -0.0058357017 -0.00504819 0.011777075 -0.013784643 -0.012763364 -0.007623785 -0.004230771 0.0051818704 -0.0129344 -0.0066992096 0.0008213435 -0.00468517 -0.00899042 0.020783043 -0.0043706545 -0.015344823 -0.0030631681 -0.0037016682 0.007031269 -0.01521482 -0.007962284 0.014310789 -0.007703338 0.0030367216 0.0039460417 -0.0072807875 0.0141063845 0.0015414434 -0.01355681 0.0002876544 0.0013938477 0.0046634804 0.005176617 0.030629646 0.005227042 0.00018402562 0.008725752 0.02007786 0.00676108 0.021635436 0.009392986 0.01558242 0.0016315173 -0.0027169203 -0.013455044 -0.01991143 0.019139033 0.016171182
j 0.025764082 -0.0041720867 -0.030130697 -0.014037992 -0.010928518 -0.008516479 -0.0079981275 -0.009836988 -0.007632693 -0.007230055 0.015411502 0.010017349 0.025692612 -0.004098048 0.011156863 0.0057996027 -0.0017343018 -0.006993072 0.0046101147 0.005816537 -0.005957366 0.019010369 -0.0067316093 -0.0003711196 -0.0028891873 -0.0038889255 -0.007835359 -0.015239875 -0.012208628 0.0047666114 -0.005611824 -0.0055711446 -0.006799956 -0.01870867 -0.003333719 -0.030854046 -0.026109373 -5.5995024e-05 -0.005349424 0.021962287 0.007719983 -0.0025961874 -0.011952251 -0.012553554 -0.014451574 0.0013177267 0.02034745 0.013790625 0.0014016483 0.004052216 -0.017998563 -0.008146024 -0.008200376 -0.0021436475 0.014775202 -0.0036803966 -0.00093432533 0.018128667 -0.007045731 0.00028712282 -0.0039473865 0.022754367 -0.031988323 -0.00909907 0.012768986 -0.020575253 -0.013098532 -0.009012867 0.00801604 0.0069154706 -0.013025364 0.0041074823 0.0058836034 -0.0026458006 -0.0036093863 0.010727458 -0.008040364 0.015178663 0.013552235 0.006314397 0.004773373 0.013748161 -0.0023977652 0.0063812775 -0.008981438 0.0053118044 0.0045580207 0.002056951 0.016035557 0.01254334 0.0037252675 0.0017382362 -0.009214866 -5.87466e-05 0.011706637 0.009872978 -0.0053606327 0.0010293757 -0.011169258 -0.006896137 0.002459928 -0.0060949866 0.0010035802 0.009570036 0.0033369977 0.00096964475 -0.011218759 -0.0038806023 0.025780883 0.001658613 0.006238135 -0.00094879564 0.0049753706 0.018383894 -0.011666678 -0.014423661 -0.0032628698 -0.027209127 -0.003070799 -0.022508088 0.0023628175 -0.01125457 0.0049751783 -0.012122757 0.010172617 -0.004142282 -0.00027553484 -0.013304096 -0.013923035 0.011091867 0.0075440435 0.007344536 -0.010034295 -0.0026668638 -0.0066017113 -0.0042392556 0.00077092944 0.0060836393 0.007950624 0.0013324021 0.0032737218 -0.0039210194 -0.01087255 -0.0027442763 -0.009970905 0.005552613 0.010113524 0.011785324 0.0005286094 -0.012769149 0.0066978233 0.009477462 -0.0070599173 0.007114076 0.016733026 -0.020357573 -0.01204465 -0.009043668 -0.00998881 0.0057627186 -0.0052939164 -0.0074511203 0.0038621011 -0.00259304 -0.0060164235 0.019352164 -0.0078612575 -0.011556528 -0.0020418488 0.003520367 0.0066414545 -0.010337401 -0.004702263 0.008398477 -0.011748528 0.002415903 0.0045325183 -0.018474896 0.012610844 0.0018133898 -0.013071631 0.00041067874 -2.2042692e-05 0.0059956224 0.0023416192 0.034303166 0.0038607023 -0.0016988834 0.012817412 0.015737936 0.011638747 0.019984454 0.003082196 0.010845584 0.004618465 -0.001791708 -0.015972555 -0.022432541 0.015396894 0.018391225
b 0.015951056 0.0041428367 -0.01800605 -0.0058585466 -0.0049703647 -0.0099173095 -0.0028779537 -0.006347336 -0.000675141 -0.0059252717 0.010610266 0.0006235047 0.019435367 -0.0040728357 0.004424077 0.0017561049 0.0006553516 -0.00689169 0.0029305478 0.0009099595 -0.0022587413 0.014263694 -0.0040229433 0.001026717 -0.0065223156 -0.001639511 -0.00885077 -0.007836954 -0.0049132467 0.0050046183 -0.0011564499 -0.00786807 -0.00096855266 -0.010407528 0.0008880468 -0.022110648 -0.012020648 -0.0027675915 -0.006360399 0.015088439 0.0077392673 -0.0040553664 -0.008837148 -0.0040143123 -0.008608995 0.0012197827 0.014622316 0.0062094117 -0.0006178933 0.0024984255 -0.013396669 -0.01073237 -0.005925888 -0.0012336491 0.011944379 0.0032656002 0.0017617317 0.012092342 -0.008555112 0.00029924678 -0.006909307 0.008089014 -0.020168545 -0.006565591 0.0075430516 -0.014964149 -0.0060833325 -0.0061019314 0.0058603864 0.0027200403 -0.005410359 0.008194711 0.0027828238 -0.0019341136 -0.004983388 0.007326214 -0.0071536195 0.011667343 0.007114034 0.004088989 0.0053203315 0.006778733 -0.0013915541 0.0047547524 -0.0069354135 -0.0017968767 0.0024247323 -0.002676481 0.015419137 0.008630624 0.00030683097 0.004253429 -0.009393184 0.0045057735 0.013355101 0.007962321 0.0019965095 0.0008138395 -0.009021061 0.00042328387 0.00027398235 -0.0047252816 -0.0018697247 0.010988144 0.005261939 0.0041149994 -0.005707324 -0.004220638 0.011983305 0.0017530419 0.0029367262 0.0019677957 0.0030443307 0.012997196 -0.012140734 -0.0048073134 0.0020325046 -0.01666712 -0.0015414045 -0.017787715 0.0016951509 -0.0073209903 0.0047660936 -0.009899301 0.0058109704 -2.4151703e-05 -0.0010194135 -0.002985186 -0.0075182747 0.0059441365 -0.0022280633 0.0053766053 -0.012983926 -0.0014442956 -0.0070988103 -0.0025014852 -0.005668306 0.0026357817 0.005925477 0.0020193243 -0.00057082897 -0.007634468 -0.009444003 0.0011547515 -0.0054810443 0.0016588194 0.0033349877 0.008028081 -0.00212324 -0.004154575 0.0014330792 0.0012568354 -0.0062137484 0.0018328968 0.008554282 -0.010964019 -0.012949351 -0.0064147324 -0.0041803806 0.0009761105 -0.00395743 -0.0034321223 0.0015780977 -0.004662528 -0.006611207 0.010232741 -0.005318587 -0.010103068 -0.006650437 -0.003659114 -0.00083683536 -0.01242819 -0.00072924484 0.007942412 -0.0021530725 0.0051089237 0.0043212273 -0.0072046486 0.013305381 0.0024235758 -0.011160944 0.0023360979 0.001020662 -0.0014928277 0.0026199364 0.022768453 0.0058751316 0.0004037912 0.011245692 0.012276509 0.0049812896 0.015018983 0.0040512076 0.010850191 -0.0025933061 -0.0016300672 -0.011661679 -0.01214441 0.012368201 0.0065707136
x 0.03176202 0.0018909983 -0.033074297 -0.01137435 -0.010235768 -0.015054696 -0.0062736976 -0.010528247 -0.004742774 0.0017017035 0.012748719 0.0073645436 0.032731455 -0.0029360845 0.0038358944 0.0036362722 -0.0021756159 -0.012242081 0.0056817434 0.0011750382 -0.008770472 0.014410839 -0.015983673 -0.0026887823 -0.0037515021 -0.0052610044 -0.009412966 -0.0142245935 -0.008860503 0.0035846746 -0.011069706 -0.007929749 -0.007250439 -0.018319719 -0.005345835 -0.035094596 -0.023089241 -0.0056310073 -0.011280598 0.02867077 0.014603553 -0.003427007 -0.011831498 -0.013620991 -0.018992128 -0.002818637 0.015848588 0.013681501 0.0047622775 0.014884867 -0.021172337 -0.013643057 -0.004564378 -0.00936864 0.021024497 0.0046539623 -0.0015132803 0.0155280335 -0.013666062 -0.0024078265 -0.012378084 0.023344617 -0.02392456 -0.002193665 0.022095649 -0.023439113 -0.014660459 -0.011406713 0.008482145 0.0059021516 -0.003647744 0.004996967 0.011594172 -0.0019902987 -0.008416842 0.01162239 -0.01405014 0.014427849 0.018096955 0.0032525093 -0.000326254 0.012509324 -0.002770352 0.012006716 -0.012444021 -0.0059581352 5.339722e-06 -0.0030193997 0.018392097 0.010395308 -0.0025585066 0.009183643 -0.018171553 0.0069115534 0.016554376 0.008855349 -0.001265924 0.0016431122 -0.019465884 -0.005578975 0.0015700647 -0.0075634304 0.0016904598 0.009049636 0.00746389 -0.00018860254 -0.009026894 -0.00498783 0.024702942 0.0042144917 0.012477647 -0.00157834 0.0018051085 0.01512454 -0.010283303 -0.017415637 -0.0022337525 -0.031821378 -0.011747755 -0.024897624 0.0048903697 -0.01769944 0.010588296 -0.014786581 0.013035024 0.0005166212 0.0023679736 -0.011323318 -0.018897098 0.016372064 0.0007220684 0.0074293897 -0.02195971 -0.0066995774 -0.0024367888 -0.013251304 -0.00737419 0.008072312 0.01158752 0.005976289 0.00233453 -0.0047273897 -0.014235805 -0.0060627386 -0.008206168 0.0071975123 0.004512951 0.013561366 0.0024514766 -0.012652019 0.0052571967 0.0031792573 -0.009122559 -0.0061845984 0.01650465 -0.014121011 -0.018479932 -0.012951178 -0.0025552893 0.0056331665 -0.0130542 -0.01048174 0.005193136 -0.0040930286 -0.010336996 0.023667505 -0.0058453507 -0.014658498 -0.005187226 -0.0039412733 0.008097007 -0.01645864 -0.005634164 0.015084152 -0.0031958178 0.0015195169 0.009738645 -0.00524525 0.018955793 0.0040226374 -0.018107403 0.0037230044 0.00045734708 0.005784056 0.0071420763 0.03317822 0.0070771226 0.003462677 0.0089369295 0.023727791 0.0068664323 0.026219735 0.010001437 0.015901161 0.0038264093 -0.0012089709 -0.01959761 -0.019731479 0.019869685 0.015567378
e 0.028687928 0.0035089618 -0.033904284 -0.01399785 -0.0064156405 -0.011552066 -0.008724722 -0.010264658 -0.002859304 -0.002239531 0.010072881 0.006740058 0.026699977 -0.004009882 0.008495521 0.003398312 -0.003864946 -0.00987733 0.0039638607 0.0074785887 -0.008374888 0.014655622 -0.0071024545 1.8335353e-05 -0.005765698 -0.007812339 -0.008244971 -0.014060149 -0.010741596 0.0054583033 -0.007045534 -0.006508441 -0.005572545 -0.015861046 -0.0034737652 -0.027146792 -0.026289739 -0.00095435086 -0.009138757 0.023894893 0.013924119 -0.0005962423 -0.010962734 -0.010476545 -0.011467961 0.00018195012 0.02037359 0.013886551 0.0043872874 0.010296401 -0.01552219 -0.013164244 -0.009221102 -0.00047420777 0.015792087 -0.00072636665 0.004106643 0.015587454 -0.012942857 0.0011184566 -0.0049667535 0.021740206 -0.027393034 -0.0070666084 0.013782057 -0.022662565 -0.011375476 -0.009922807 0.01016281 0.0026465573 -0.010692408 0.0070353663 0.0050446126 0.0024468813 -0.006893007 0.011755342 -0.0099779945 0.018230993 0.017123284 -0.0010298045 0.0055833803 0.010123535 -0.0036655527 0.0054478133 -0.007920115 -0.001240102 0.002024464 -0.0024698826 0.016205642 0.007716135 0.0027038408 0.0058486518 -0.014215544 0.0028428943 0.013056359 0.012394623 0.00030782117 0.0005082563 -0.017320126 -0.0060903444 0.0013454707 -0.010519466 -0.0003675998 0.013477668 0.0054348893 0.000918762 -0.0054124827 -0.0067395754 0.025450034 0.0034180996 0.012999449 -0.0020409166 0.0030773068 0.01929351 -0.013080089 -0.013907374 -0.0031990882 -0.031486306 -0.0058084163 -0.025589112 0.005331562 -0.013230521 0.008131911 -0.017246692 0.013870562 -0.004769455 0.0024433986 -0.012536425 -0.015731117 0.011154153 -0.00033793916 0.004082108 -0.016376542 -0.00645352 -0.0020353917 -0.0048221503 -0.0012409618 0.004067591 0.009050931 0.0038150023 0.0035226343 -0.006425145 -0.012956852 -0.004919085 -0.014115879 0.004865846 0.011890537 0.0074958694 0.00045699073 -0.009381907 0.0024376495 0.0056760563 -0.007227652 0.0035369461 0.013649251 -0.01779803 -0.016426245 -0.010799094 -0.007494832 0.0064219353 -0.007957583 -0.008715193 0.0032561366 -0.003388568 -0.00726106 0.02062416 -0.005401611 -0.01642825 -0.003987613 -0.00031864888 0.006974811 -0.011665618 -0.0021998358 0.011018538 -0.005071045 0.0061952933 0.009688867 -0.014417879 0.015531582 0.0041402667 -0.0147662815 0.0013563446 -0.00025148332 0.0032684586 0.0030354848 0.031279773 0.0066364086 0.0009365621 0.014599966 0.015980206 0.008731529 0.022746066 0.007369126 0.017304918 0.00095369824 -0.0070628705 -0.014348472 -0.017721934 0.01889295 0.0122437375
v 0.02510515 0.0039109974 -0.025104437 -0.010477282 -0.01233497 -0.012932153 -0.00682576 -0.005656043 0.0014569785 -0.0008139435 0.011484941 0.007248847 0.024461579 0.00068110815 0.000809705 -0.0003867686 -0.00031068746 -0.006351669 0.007275723 0.0015716134 -0.0050749457 0.014176022 -0.009565609 0.0016091502 -0.00885427 -0.0009271847 -0.006289812 -0.010727379 -0.009780878 0.0010592872 -0.0087147625 -0.0067319265 -0.0076546664 -0.016402615 -0.0013931671 -0.025578722 -0.018776983 -0.0016957085 -0.008639959 0.020752627 0.013261398 -0.007289471 -0.010217419 -0.008238144 -0.013890824 -0.0014415466 0.013621571 0.008513997 0.0036351676 0.010167434 -0.012477891 -0.007819644 -0.0062147425 -0.0066016405 0.01647649 0.0029099535 -0.0020454102 0.014445156 -0.012365283 -0.004541843 -0.0061734472 0.016188908 -0.021123514 -4.399185e-05 0.01631468 -0.014856026 -0.013205721 -0.0084911985 0.00666994 0.004248219 -0.003964448 0.0041690064 0.0075981133 0.0033357667 -0.0022920384 0.012674683 -0.011648872 0.011930349 0.014211648 0.0019627798 0.00048676966 0.011576787 -0.0005540812 0.010193817 -0.005195071 -0.0052021206 0.0031194384 0.0020148396 0.01828887 0.00954752 -0.003312785 0.0070011914 -0.009102462 0.0030678338 0.011044892 0.010308777 -0.0024999024 -0.001469167 -0.013775628 -0.00043460558 -0.00010008037 -0.006559164 0.00021822607 0.009420183 0.0028091415 0.0021288553 -0.0044832616 -0.0045779636 0.022083232 0.005726585 0.0051181144 -0.0027137538 -0.00033625492 0.011706651 -0.011790225 -0.009712612 -0.0025765167 -0.025362538 -0.009784974 -0.01939373 0.0018152467 -0.011677673 0.008027397 -0.015389738 0.008414786 -0.004639022 -0.0020791306 -0.0075235395 -0.01097329 0.010971369 6.127742e-05 0.0021007634 -0.015215715 -0.0026888386 -0.00496291 -0.010176827 -0.005833605 0.0028816187 0.0078251995 0.005242976 -0.0018998588 -0.006020664 -0.010642741 -0.0057577677 -0.007169295 0.0041311565 0.0068481704 0.008335862 0.0023479315 -0.006459961 0.004492951 0.0015628505 -0.0102150785 -0.003798874 0.010293624 -0.011157637 -0.014703752 -0.010117762 -0.0038981398 0.0035723723 -0.0098265475 -0.008619853 0.0046713864 -0.003070843 -0.006643864 0.01690997 -0.0055916505 -0.013347331 -0.0021783519 -0.004917413 0.004303566 -0.011305605 -0.0054255975 0.009272289 -0.0020983461 0.0051006214 0.0049477206 -0.005150557 0.015111343 -0.0010430239 -0.011125194 0.0033333704 0.0004467754 -6.179188e-06 0.0062860264 0.024895474 0.003605059 -0.00078902196 0.006675954 0.018186778 0.0031189441 0.01889179 0.0076731434 0.013678293 0.004115201 -0.0016319775 -0.015413138 -0.01330314 0.01424036 0.009062358
t 0.029113686 -0.00096477143 -0.03563166 -0.0091586895 -0.0135778105 -0.005321029 -0.0066406163 -0.007501299 0.0053358064 -0.0027609738 0.015335809 0.007730021 0.028529504 0.0009843294 0.008256349 0.0044822674 -9.393757e-05 -0.010380531 0.006322018 0.00313219 -0.0050665704 0.015589444 -0.007834015 0.0026009777 -0.0065626404 0.00018079113 -0.015418068 -0.013736917 -0.009364357 0.0069292574 -0.003551673 -0.009794963 -0.007751256 -0.021627132 0.0036630172 -0.029515106 -0.021406401 -0.012063127 -0.0029616598 0.023027198 0.018999754 -0.0028920816 -0.011292528 -0.008995603 -0.017918967 0.0055059385 0.016513063 0.007954581 0.0046134167 0.006841728 -0.017555682 -0.012893278 -0.010277143 -0.0034708465 0.01496725 0.00053443987 0.005626035 0.01615771 -0.011484983 -0.0013437205 -0.0055718566 0.015243377 -0.0288604 -0.0014245567 0.01844421 -0.021997793 -0.017783638 -0.010476164 0.012979064 0.0037040955 -0.0067625483 0.009968149 0.003362243 0.010854581 -0.0010406491 0.008760236 -0.010048389 0.02035293 0.017206721 -0.0013976403 0.004399737 0.0115598785 -0.008842151 0.007558159 -0.014648557 -0.0073282444 -0.0024845288 0.007013133 0.01758896 0.0065373876 -0.004474614 0.003487401 -0.009642733 0.0073525566 0.020110933 0.010228551 -0.0053895917 0.0061983834 -0.013308592 0.0016548121 -0.0011095508 -0.01572545 -0.0050385725 0.014097788 0.0018132105 0.0035325263 -0.0030940908 -0.0010818396 0.021643605 0.0053645307 0.009979747 -0.0018437443 -0.0027909349 0.011945816 -0.016270515 -0.014215634 0.0072363093 -0.03335429 -0.019602241 -0.023874639 0.0026265876 -0.017219303 0.017369572 -0.019459218 0.009459044 -9.171195e-05 -0.0011123584 -0.010753421 -0.01640143 0.013126326 -0.005351061 0.0021353248 -0.019393058 -0.0006017679 -0.009506903 -0.010672117 -0.00651226 0.0028651177 0.017262362 -0.00019760663 -0.0040995334 -0.008181856 -0.01697418 -0.004984601 -0.018601242 -0.002306402 0.008859564 0.011131298 0.0039342623 -0.009663192 0.008623391 0.0035070875 -0.013388369 0.0019284944 0.009295523 -0.022952715 -0.017460663 -0.0117577845 0.003379572 0.0040912656 -0.013516458 -0.005231302 0.0059398613 -0.006342484 -0.013729833 0.015624279 -0.014051072 -0.01887115 -0.010444395 -0.0036244844 -8.454679e-05 -0.012034072 -0.012681939 0.008092239 -0.005504071 -0.0018890266 0.004599279 -0.015151848 0.017516062 0.00038143827 -0.019144146 -0.0020057524 0.0010965198 0.001974298 0.0033599513 0.034015857 0.0033349858 0.004377236 0.01749593 0.025236044 0.011073685 0.014683283 0.00013739605 0.012721058 0.007891156 -0.0013840088 -0.02314877 -0.013805674 0.009658866 0.015170494
s 0.026443973 -0.0017125115 -0.035875738 -0.011491325 -0.015399905 -0.0071206917 -0.0053003603 -0.010320306 0.0011973182 -0.0059509007 0.013877553 0.008748152 0.03129801 -0.00089714397 0.0065479507 0.0059627816 -0.003507753 -0.011329976 0.0046166587 0.0024991897 -0.001593317 0.016383685 -0.009191956 0.0032108773 -0.0054124733 -0.0001995501 -0.0150300795 -0.013128053 -0.008475408 0.0058888067 -0.0028396293 -0.009199196 -0.0100118285 -0.023413813 0.0027820168 -0.031644735 -0.021181606 -0.012443097 -0.0050045676 0.025642827 0.015694205 -0.0010628992 -0.010651476 -0.008671515 -0.018786114 0.0041335206 0.018642213 0.0066028885 0.00642795 0.010425326 -0.017687963 -0.012826937 -0.007754964 -0.0007099083 0.018065944 0.0016885499 0.004849062 0.017802745 -0.009817699 5.9433773e-06 -0.006860404 0.016301617 -0.02805693 -0.0039359834 0.013730739 -0.021866629 -0.01832802 -0.012651103 0.015666151 0.001820579 -0.005323226 0.009613657 0.0028353336 0.01040994 -0.0064265407 0.0082275225 -0.010802815 0.019923331 0.0176253 0.003616382 0.0007392593 0.013850275 -0.007130539 0.0057144635 -0.013094308 -0.0032174357 -0.002251378 0.004351996 0.016175149 0.009615921 -0.00049570634 0.00024676402 -0.009030884 0.003859955 0.020862741 0.00788467 -0.0029048417 0.005237167 -0.011649189 0.0014776842 -0.0012712748 -0.014540132 -0.0044944207 0.016311314 0.0034114441 0.0024312872 -0.0023679354 -0.0031227486 0.021807466 0.0005069521 0.008093035 -0.00091333553 0.0017540393 0.011757453 -0.017863551 -0.016959727 0.0062797912 -0.029992653 -0.016960667 -0.02356718 0.0055341073 -0.018826542 0.015320369 -0.018300023 0.008264308 -0.0031587186 0.0031534606 -0.009299673 -0.015164106 0.012011004 -0.0047009233 0.005865993 -0.018711807 0.0018240607 -0.0054340023 -0.009951682 -0.0057255733 0.004843211 0.01403737 0.0035587384 0.001186866 -0.006462607 -0.015065646 -0.0018105027 -0.0145838875 -0.0011835849 0.0095361415 0.011596002 0.0029698224 -0.008625422 0.0044523478 0.002340843 -0.0098856 0.0030142455 0.0078053917 -0.023189796 -0.0168014 -0.008111926 0.002036101 0.004745916 -0.011640388 -0.004918987 0.002255554 -0.0014896913 -0.012302316 0.018084364 -0.012641095 -0.02062743 -0.0070349346 -0.0037024182 0.0035266683 -0.012518976 -0.011210457 0.010364196 -0.0039830906 0.0031980462 0.008049321 -0.014151537 0.012942312 -0.0008107276 -0.01662956 -0.0034381154 -0.0010415451 0.0017353143 0.003685119 0.03577789 0.0038421783 0.00068545947 0.01589747 0.024174841 0.013038242 0.016801659 0.0042299717 0.015485698 0.0052660457 0.001052921 -0.021211516 -0.018066345 0.012663805 0.016388804
n 0.029229917 0.005275172 -0.028912462 -0.006012527 -0.017974937 -0.011558393 -0.00792781 -0.010871586 0.008405363 -0.009524809 0.01601314 0.0028341701 0.025318224 0.006106563 0.0033871434 0.0023501269 0.0013379755 -0.0077082957 0.0042321202 -0.0005379362 -0.00168407 0.016423455 -0.008414326 0.007535945 -0.0132809775 0.0055759544 -0.012448325 -0.0072423606 -0.013563474 0.005055087 -0.0046098707 -0.004150605 -0.0068246503 -0.020441918 -0.0047013573 -0.024587218 -0.01470791 -0.007654941 -0.00485694 0.019502308 0.019062664 -0.0067072962 -0.011742819 -0.011391649 -0.020922381 0.005281794 0.020371052 0.0043038516 0.0068249726 0.00938911 -0.011457837 -0.006168275 -0.0041797603 -0.0005483054 0.018119805 0.006171069 0.0017800184 0.014942156 -0.013327683 -0.0041840714 -0.010991162 0.016285155 -0.020513622 0.0010787442 0.01325853 -0.011858879 -0.0142700905 -0.0041014915 0.0063445265 0.0011398337 -0.008794804 0.010733703 0.010406894 0.011616116 -0.001922369 0.012696874 -0.011655552 0.01586266 0.009307632 0.002002076 0.006088908 0.011288252 -0.0063056936 0.01192363 -0.009799962 -0.01276552 0.0051706433 0.007604942 0.017045353 0.003956541 -0.0076534497 0.00065964164 -0.008714642 0.010519671 0.01143131 0.010211744 -0.004458012 -0.0020414474 -0.010425192 -0.0029274286 0.004036003 -0.013917344 -0.0061621116 0.012448767 -0.0013256342 0.0053953426 -0.008635264 0.003134376 0.020445766 0.0026747847 0.006197988 -0.00043606228 -0.0014304898 0.015736936 -0.016044972 -0.011797594 0.0072967205 -0.027421493 -0.018645419 -0.01824142 0.0022821059 -0.010859542 0.016694073 -0.010733642 0.00681503 -0.0051600276 -8.668172e-05 -0.0075801006 -0.0075573814 0.00803645 0.0011408952 -0.0026926282 -0.0146329915 0.0015609313 -0.011076455 -0.012052718 -0.0072745914 -0.0013613704 0.008063549 -0.0039163847 -0.003531635 -0.006585454 -0.0128546255 -0.0016994864 -0.008648994 0.0070345374 0.004124842 0.007635703 0.0034741573 -0.011770442 0.005541928 0.0011152084 -0.014113586 -0.0025783288 0.0010065853 -0.017226817 -0.016936464 -0.006193603 0.0045717857 -0.001320514 -0.0150266085 -0.008577193 0.0053090993 -0.0026550356 -0.012401043 0.00992382 -0.013094911 -0.01856821 -0.011910109 -0.008964746 0.00023839026 -0.007687159 -0.0072360244 0.013308138 0.0024445886 0.0012537151 0.005057501 -0.0069979387 0.012560723 -0.001972058 -0.01405654 -0.0054786424 0.0003633982 -0.0024383795 0.00415347 0.03147033 0.0029287108 0.0014774913 0.016034791 0.01953478 0.002930701 0.0172181 0.001940849 0.010167991 0.0022059733 -0.0020795157 -0.022650028 -0.01748482 0.012370928 0.0038751082
